<?xml version="1.0"?>
<opencv_storage>
<opencv_ml_knn>
  <format>3</format>
  <is_classifier>1</is_classifier>
  <default_k>10</default_k>
  <samples type_id="opencv-matrix">
    <rows>2</rows>
    <cols>100</cols>
    <dt>f</dt>
    <data>
      0. 0. 2.70270277e-02 0. 0. 0. 0. 0. 0. 2.70270277e-02
      2.70270277e-02 5.40540554e-02 2.70270277e-02 0. 0. 0.
      2.70270277e-02 5.40540554e-02 0. 0. 0. 2.70270277e-02 0.
      2.70270277e-02 2.70270277e-02 2.70270277e-02 0. 0. 2.70270277e-02
      0. 0. 0. 0. 0. 2.70270277e-02 2.70270277e-02 0. 2.70270277e-02 0.
      0. 2.70270277e-02 0. 2.70270277e-02 0. 0. 0. 2.70270277e-02 0. 0.
      2.70270277e-02 2.70270277e-02 0. 0. 0. 0. 0. 2.70270277e-02
      2.70270277e-02 0. 0. 0. 2.70270277e-02 2.70270277e-02 0.
      2.70270277e-02 0. 0. 0. 2.70270277e-02 0. 0. 0. 2.70270277e-02
      2.70270277e-02 2.70270277e-02 0. 0. 2.70270277e-02 0. 0. 0. 0. 0.
      0. 2.70270277e-02 2.70270277e-02 0. 2.70270277e-02 0. 0. 0.
      2.70270277e-02 0. 0. 0. 0. 0. 2.70270277e-02 0. 0. 1.40845068e-02
      2.81690136e-02 0. 1.40845068e-02 1.40845068e-02 1.40845068e-02
      2.81690136e-02 1.40845068e-02 1.40845068e-02 0. 0. 0. 0.
      1.40845068e-02 1.40845068e-02 1.40845068e-02 0. 0. 1.40845068e-02
      1.40845068e-02 1.40845068e-02 0. 1.40845068e-02 0. 0. 0.
      1.40845068e-02 1.40845068e-02 0. 1.40845068e-02 1.40845068e-02
      1.40845068e-02 1.40845068e-02 1.40845068e-02 0. 0. 2.81690136e-02
      0. 1.40845068e-02 2.81690136e-02 0. 1.40845068e-02 0.
      1.40845068e-02 2.81690136e-02 1.40845068e-02 0. 1.40845068e-02
      1.40845068e-02 0. 0. 2.81690136e-02 1.40845068e-02 1.40845068e-02
      1.40845068e-02 1.40845068e-02 0. 0. 1.40845068e-02 1.40845068e-02
      1.40845068e-02 0. 0. 1.40845068e-02 0. 1.40845068e-02
      1.40845068e-02 1.40845068e-02 0. 1.40845068e-02 1.40845068e-02
      1.40845068e-02 0. 0. 0. 1.40845068e-02 1.40845068e-02 0.
      1.40845068e-02 1.40845068e-02 1.40845068e-02 1.40845068e-02
      1.40845068e-02 1.40845068e-02 0. 0. 1.40845068e-02 0.
      1.40845068e-02 1.40845068e-02 1.40845068e-02 0. 1.40845068e-02
      1.40845068e-02 1.40845068e-02 1.40845068e-02 1.40845068e-02 0.
      1.40845068e-02 1.40845068e-02</data></samples>
  <responses type_id="opencv-matrix">
    <rows>2</rows>
    <cols>1</cols>
    <dt>f</dt>
    <data>
      0. 1.</data></responses></opencv_ml_knn>
</opencv_storage>
